digraph Tree {
node [shape=box, style="rounded", color="black", fontname="helvetica"] ;
edge [fontname="helvetica"] ;
0 [label="Humidity <= 0.8\nsquared_error = 0.0\nsamples = 46\nvalue = 0.5"] ;
1 [label="Humidity <= 0.1\nsquared_error = 0.0\nsamples = 31\nvalue = 0.5"] ;
0 -> 1 [labeldistance=2.5, labelangle=45, headlabel="True"] ;
2 [label="Heatcelcius <= 1.0\nsquared_error = 0.0\nsamples = 26\nvalue = 0.5"] ;
1 -> 2 ;
3 [label="Humidity <= -1.1\nsquared_error = 0.0\nsamples = 16\nvalue = 0.5"] ;
2 -> 3 ;
4 [label="Humidity <= -1.2\nsquared_error = 0.0\nsamples = 3\nvalue = 0.6"] ;
3 -> 4 ;
5 [label="Humidity <= -1.3\nsquared_error = 0.0\nsamples = 2\nvalue = 0.5"] ;
4 -> 5 ;
6 [label="squared_error = 0.0\nsamples = 1\nvalue = 0.6"] ;
5 -> 6 ;
7 [label="squared_error = -0.0\nsamples = 1\nvalue = 0.5"] ;
5 -> 7 ;
8 [label="squared_error = 0.0\nsamples = 1\nvalue = 0.7"] ;
4 -> 8 ;
9 [label="Humidity <= -0.6\nsquared_error = 0.0\nsamples = 13\nvalue = 0.5"] ;
3 -> 9 ;
10 [label="Humidity <= -0.9\nsquared_error = 0.0\nsamples = 6\nvalue = 0.5"] ;
9 -> 10 ;
11 [label="squared_error = 0.0\nsamples = 2\nvalue = 0.5"] ;
10 -> 11 ;
12 [label="Humidity <= -0.7\nsquared_error = 0.0\nsamples = 4\nvalue = 0.5"] ;
10 -> 12 ;
13 [label="Humidity <= -0.8\nsquared_error = 0.0\nsamples = 2\nvalue = 0.5"] ;
12 -> 13 ;
14 [label="squared_error = 0.0\nsamples = 1\nvalue = 0.5"] ;
13 -> 14 ;
15 [label="squared_error = 0.0\nsamples = 1\nvalue = 0.5"] ;
13 -> 15 ;
16 [label="Humidity <= -0.7\nsquared_error = 0.0\nsamples = 2\nvalue = 0.5"] ;
12 -> 16 ;
17 [label="squared_error = 0.0\nsamples = 1\nvalue = 0.5"] ;
16 -> 17 ;
18 [label="squared_error = -0.0\nsamples = 1\nvalue = 0.5"] ;
16 -> 18 ;
19 [label="Humidity <= -0.5\nsquared_error = 0.0\nsamples = 7\nvalue = 0.5"] ;
9 -> 19 ;
20 [label="squared_error = 0.0\nsamples = 2\nvalue = 0.6"] ;
19 -> 20 ;
21 [label="Heatcelcius <= -1.1\nsquared_error = 0.0\nsamples = 5\nvalue = 0.5"] ;
19 -> 21 ;
22 [label="Humidity <= -0.2\nsquared_error = 0.0\nsamples = 2\nvalue = 0.5"] ;
21 -> 22 ;
23 [label="squared_error = 0.0\nsamples = 1\nvalue = 0.5"] ;
22 -> 23 ;
24 [label="squared_error = -0.0\nsamples = 1\nvalue = 0.5"] ;
22 -> 24 ;
25 [label="Humidity <= -0.1\nsquared_error = 0.0\nsamples = 3\nvalue = 0.5"] ;
21 -> 25 ;
26 [label="Heatcelcius <= -0.6\nsquared_error = 0.0\nsamples = 2\nvalue = 0.5"] ;
25 -> 26 ;
27 [label="squared_error = 0.0\nsamples = 1\nvalue = 0.5"] ;
26 -> 27 ;
28 [label="squared_error = 0.0\nsamples = 1\nvalue = 0.5"] ;
26 -> 28 ;
29 [label="squared_error = -0.0\nsamples = 1\nvalue = 0.5"] ;
25 -> 29 ;
30 [label="Humidity <= -1.4\nsquared_error = 0.0\nsamples = 10\nvalue = 0.5"] ;
2 -> 30 ;
31 [label="squared_error = 0.0\nsamples = 1\nvalue = 0.5"] ;
30 -> 31 ;
32 [label="Humidity <= -0.8\nsquared_error = 0.0\nsamples = 9\nvalue = 0.5"] ;
30 -> 32 ;
33 [label="Humidity <= -1.1\nsquared_error = 0.0\nsamples = 4\nvalue = 0.5"] ;
32 -> 33 ;
34 [label="squared_error = 0.0\nsamples = 1\nvalue = 0.5"] ;
33 -> 34 ;
35 [label="Heatcelcius <= 1.5\nsquared_error = 0.0\nsamples = 3\nvalue = 0.5"] ;
33 -> 35 ;
36 [label="squared_error = 0.0\nsamples = 2\nvalue = 0.5"] ;
35 -> 36 ;
37 [label="squared_error = 0.0\nsamples = 1\nvalue = 0.5"] ;
35 -> 37 ;
38 [label="Humidity <= -0.8\nsquared_error = 0.0\nsamples = 5\nvalue = 0.5"] ;
32 -> 38 ;
39 [label="squared_error = 0.0\nsamples = 1\nvalue = 0.5"] ;
38 -> 39 ;
40 [label="Humidity <= -0.7\nsquared_error = 0.0\nsamples = 4\nvalue = 0.5"] ;
38 -> 40 ;
41 [label="squared_error = 0.0\nsamples = 1\nvalue = 0.5"] ;
40 -> 41 ;
42 [label="Humidity <= -0.5\nsquared_error = 0.0\nsamples = 3\nvalue = 0.5"] ;
40 -> 42 ;
43 [label="squared_error = 0.0\nsamples = 1\nvalue = 0.5"] ;
42 -> 43 ;
44 [label="Humidity <= -0.3\nsquared_error = 0.0\nsamples = 2\nvalue = 0.5"] ;
42 -> 44 ;
45 [label="squared_error = 0.0\nsamples = 1\nvalue = 0.5"] ;
44 -> 45 ;
46 [label="squared_error = 0.0\nsamples = 1\nvalue = 0.5"] ;
44 -> 46 ;
47 [label="Humidity <= 0.2\nsquared_error = 0.0\nsamples = 5\nvalue = 0.6"] ;
1 -> 47 ;
48 [label="squared_error = 0.0\nsamples = 1\nvalue = 0.6"] ;
47 -> 48 ;
49 [label="Humidity <= 0.5\nsquared_error = 0.0\nsamples = 4\nvalue = 0.5"] ;
47 -> 49 ;
50 [label="Heatcelcius <= -1.6\nsquared_error = 0.0\nsamples = 2\nvalue = 0.5"] ;
49 -> 50 ;
51 [label="squared_error = 0.0\nsamples = 1\nvalue = 0.5"] ;
50 -> 51 ;
52 [label="squared_error = -0.0\nsamples = 1\nvalue = 0.5"] ;
50 -> 52 ;
53 [label="Humidity <= 0.7\nsquared_error = 0.0\nsamples = 2\nvalue = 0.6"] ;
49 -> 53 ;
54 [label="squared_error = 0.0\nsamples = 1\nvalue = 0.6"] ;
53 -> 54 ;
55 [label="squared_error = 0.0\nsamples = 1\nvalue = 0.6"] ;
53 -> 55 ;
56 [label="Heatcelcius <= -0.1\nsquared_error = 0.0\nsamples = 15\nvalue = 0.6"] ;
0 -> 56 [labeldistance=2.5, labelangle=-45, headlabel="False"] ;
57 [label="Humidity <= 1.4\nsquared_error = 0.0\nsamples = 7\nvalue = 0.7"] ;
56 -> 57 ;
58 [label="Humidity <= 1.1\nsquared_error = 0.0\nsamples = 4\nvalue = 0.7"] ;
57 -> 58 ;
59 [label="Humidity <= 0.9\nsquared_error = 0.0\nsamples = 3\nvalue = 0.7"] ;
58 -> 59 ;
60 [label="squared_error = 0.0\nsamples = 1\nvalue = 0.7"] ;
59 -> 60 ;
61 [label="Humidity <= 1.0\nsquared_error = 0.0\nsamples = 2\nvalue = 0.7"] ;
59 -> 61 ;
62 [label="squared_error = 0.0\nsamples = 1\nvalue = 0.7"] ;
61 -> 62 ;
63 [label="squared_error = 0.0\nsamples = 1\nvalue = 0.7"] ;
61 -> 63 ;
64 [label="squared_error = 0.0\nsamples = 1\nvalue = 0.7"] ;
58 -> 64 ;
65 [label="Humidity <= 1.8\nsquared_error = 0.0\nsamples = 3\nvalue = 0.7"] ;
57 -> 65 ;
66 [label="Humidity <= 1.6\nsquared_error = 0.0\nsamples = 2\nvalue = 0.7"] ;
65 -> 66 ;
67 [label="squared_error = 0.0\nsamples = 1\nvalue = 0.7"] ;
66 -> 67 ;
68 [label="squared_error = 0.0\nsamples = 1\nvalue = 0.7"] ;
66 -> 68 ;
69 [label="squared_error = -0.0\nsamples = 1\nvalue = 0.7"] ;
65 -> 69 ;
70 [label="Humidity <= 1.2\nsquared_error = 0.0\nsamples = 8\nvalue = 0.6"] ;
56 -> 70 ;
71 [label="Humidity <= 1.0\nsquared_error = 0.0\nsamples = 2\nvalue = 0.6"] ;
70 -> 71 ;
72 [label="squared_error = 0.0\nsamples = 1\nvalue = 0.5"] ;
71 -> 72 ;
73 [label="squared_error = 0.0\nsamples = 1\nvalue = 0.7"] ;
71 -> 73 ;
74 [label="Humidity <= 2.1\nsquared_error = 0.0\nsamples = 6\nvalue = 0.6"] ;
70 -> 74 ;
75 [label="Humidity <= 1.3\nsquared_error = 0.0\nsamples = 5\nvalue = 0.5"] ;
74 -> 75 ;
76 [label="squared_error = 0.0\nsamples = 1\nvalue = 0.6"] ;
75 -> 76 ;
77 [label="Humidity <= 1.7\nsquared_error = 0.0\nsamples = 4\nvalue = 0.5"] ;
75 -> 77 ;
78 [label="Humidity <= 1.5\nsquared_error = 0.0\nsamples = 3\nvalue = 0.5"] ;
77 -> 78 ;
79 [label="Humidity <= 1.4\nsquared_error = 0.0\nsamples = 2\nvalue = 0.6"] ;
78 -> 79 ;
80 [label="squared_error = 0.0\nsamples = 1\nvalue = 0.5"] ;
79 -> 80 ;
81 [label="squared_error = 0.0\nsamples = 1\nvalue = 0.6"] ;
79 -> 81 ;
82 [label="squared_error = 0.0\nsamples = 1\nvalue = 0.5"] ;
78 -> 82 ;
83 [label="squared_error = -0.0\nsamples = 1\nvalue = 0.6"] ;
77 -> 83 ;
84 [label="squared_error = 0.0\nsamples = 1\nvalue = 0.6"] ;
74 -> 84 ;
}